<?xml version="1.0"?>
<opencv_storage>
<cascade>
  <stageType>BOOST</stageType>
  <featureType>HAAR</featureType>
  <height>32</height>
  <width>32</width>
  <stageParams>
    <boostType>GAB</boostType>
    <minHitRate>9.9500000476837158e-01</minHitRate>
    <maxFalseAlarm>5.0000000000000000e-01</maxFalseAlarm>
    <weightTrimRate>9.4999998807907104e-01</weightTrimRate>
    <maxDepth>1</maxDepth>
    <maxWeakCount>100</maxWeakCount></stageParams>
  <featureParams>
    <maxCatCount>0</maxCatCount>
    <featSize>1</featSize>
    <mode>BASIC</mode></featureParams>
  <stageNum>15</stageNum>
  <stages>
    <!-- stage 0 -->
    <_>
      <maxWeakCount>4</maxWeakCount>
      <stageThreshold>-1.6246521472930908e+00</stageThreshold>
      <weakClassifiers>
        <_>
          <internalNodes>
            0 -1 82 -4.0224414318799973e-02</internalNodes>
          <leafValues>
            -2.8358209133148193e-01 -9.4789081811904907e-01</leafValues></_>
        <_>
          <internalNodes>
            0 -1 22 1.6057731045293622e-05</internalNodes>
          <leafValues>
            -7.5875872373580933e-01 2.7160236239433289e-01</leafValues></_>
        <_>
          <internalNodes>
            0 -1 87 -1.9364872059668414e-05</internalNodes>
          <leafValues>
            2.9409173130989075e-01 -8.2919168472290039e-01</leafValues></_>
        <_>
          <internalNodes>
            0 -1 20 2.5933641009032726e-03</internalNodes>
          <leafValues>
            -7.8348082304000854e-01 3.4887564182281494e-01</leafValues></_></weakClassifiers></_>
    <!-- stage 1 -->
    <_>
      <maxWeakCount>4</maxWeakCount>
      <stageThreshold>-1.6239593029022217e+00</stageThreshold>
      <weakClassifiers>
        <_>
          <internalNodes>
            0 -1 80 5.5946968495845795e-03</internalNodes>
          <leafValues>
            -8.2819795608520508e-01 4.0000000596046448e-01</leafValues></_>
        <_>
          <internalNodes>
            0 -1 51 7.9207038506865501e-03</internalNodes>
          <leafValues>
            -6.8043416738510132e-01 4.1579324007034302e-01</leafValues></_>
        <_>
          <internalNodes>
            0 -1 113 2.3603488443768583e-05</internalNodes>
          <leafValues>
            -5.2894383668899536e-01 4.6638190746307373e-01</leafValues></_>
        <_>
          <internalNodes>
            0 -1 23 -2.1094563417136669e-03</internalNodes>
          <leafValues>
            4.1361668705940247e-01 -5.1635259389877319e-01</leafValues></_></weakClassifiers></_>
    <!-- stage 2 -->
    <_>
      <maxWeakCount>5</maxWeakCount>
      <stageThreshold>-1.7165830135345459e+00</stageThreshold>
      <weakClassifiers>
        <_>
          <internalNodes>
            0 -1 38 -1.5998099744319916e-01</internalNodes>
          <leafValues>
            -3.5483869910240173e-01 -9.4538360834121704e-01</leafValues></_>
        <_>
          <internalNodes>
            0 -1 99 -5.3261602297425270e-03</internalNodes>
          <leafValues>
            1.0934135317802429e-01 -7.7342772483825684e-01</leafValues></_>
        <_>
          <internalNodes>
            0 -1 55 3.1377613777294755e-04</internalNodes>
          <leafValues>
            1.6517575085163116e-01 -9.5455956459045410e-01</leafValues></_>
        <_>
          <internalNodes>
            0 -1 49 -4.2784065008163452e-03</internalNodes>
          <leafValues>
            -9.5687484741210938e-01 2.1173162758350372e-01</leafValues></_>
        <_>
          <internalNodes>
            0 -1 74 4.2445724830031395e-04</internalNodes>
          <leafValues>
            1.5451139211654663e-01 -9.3401485681533813e-01</leafValues></_></weakClassifiers></_>
    <!-- stage 3 -->
    <_>
      <maxWeakCount>5</maxWeakCount>
      <stageThreshold>-1.7012501955032349e+00</stageThreshold>
      <weakClassifiers>
        <_>
          <internalNodes>
            0 -1 65 -2.6349589228630066e-02</internalNodes>
          <leafValues>
            3.5897436738014221e-01 -8.3443087339401245e-01</leafValues></_>
        <_>
          <internalNodes>
            0 -1 85 7.5805769301950932e-04</internalNodes>
          <leafValues>
            -7.1983319520950317e-01 2.7341607213020325e-01</leafValues></_>
        <_>
          <internalNodes>
            0 -1 89 1.1475678766146302e-03</internalNodes>
          <leafValues>
            -4.2476135492324829e-01 6.6822797060012817e-01</leafValues></_>
        <_>
          <internalNodes>
            0 -1 96 1.5958498697727919e-03</internalNodes>
          <leafValues>
            -3.3947327733039856e-01 5.8290326595306396e-01</leafValues></_>
        <_>
          <internalNodes>
            0 -1 57 8.0833258107304573e-03</internalNodes>
          <leafValues>
            -3.0512809753417969e-01 8.0949771404266357e-01</leafValues></_></weakClassifiers></_>
    <!-- stage 4 -->
    <_>
      <maxWeakCount>6</maxWeakCount>
      <stageThreshold>-1.6489658355712891e+00</stageThreshold>
      <weakClassifiers>
        <_>
          <internalNodes>
            0 -1 40 -7.1793451905250549e-02</internalNodes>
          <leafValues>
            3.5384616255760193e-01 -8.1970262527465820e-01</leafValues></_>
        <_>
          <internalNodes>
            0 -1 83 -1.7907314002513885e-02</internalNodes>
          <leafValues>
            4.7142377495765686e-01 -5.1419013738632202e-01</leafValues></_>
        <_>
          <internalNodes>
            0 -1 68 1.1904162238352001e-04</internalNodes>
          <leafValues>
            2.1478192508220673e-01 -8.6883008480072021e-01</leafValues></_>
        <_>
          <internalNodes>
            0 -1 56 -1.8993947014678270e-04</internalNodes>
          <leafValues>
            -9.1649883985519409e-01 2.1830955147743225e-01</leafValues></_>
        <_>
          <internalNodes>
            0 -1 73 -1.2967518996447325e-03</internalNodes>
          <leafValues>
            -8.4804028272628784e-01 1.7609627544879913e-01</leafValues></_>
        <_>
          <internalNodes>
            0 -1 67 5.1021808758378029e-04</internalNodes>
          <leafValues>
            2.1054756641387939e-01 -9.4760179519653320e-01</leafValues></_></weakClassifiers></_>
    <!-- stage 5 -->
    <_>
      <maxWeakCount>7</maxWeakCount>
      <stageThreshold>-1.8653531074523926e+00</stageThreshold>
      <weakClassifiers>
        <_>
          <internalNodes>
            0 -1 48 -5.7566883042454720e-03</internalNodes>
          <leafValues>
            5.4545456171035767e-01 -8.0492252111434937e-01</leafValues></_>
        <_>
          <internalNodes>
            0 -1 10 -7.0087790489196777e-02</internalNodes>
          <leafValues>
            4.9881917238235474e-01 -5.2956438064575195e-01</leafValues></_>
        <_>
          <internalNodes>
            0 -1 100 -7.4139833450317383e-02</internalNodes>
          <leafValues>
            4.2539605498313904e-01 -4.9903401732444763e-01</leafValues></_>
        <_>
          <internalNodes>
            0 -1 54 -1.5151905245147645e-04</internalNodes>
          <leafValues>
            -9.2517828941345215e-01 1.7272688448429108e-01</leafValues></_>
        <_>
          <internalNodes>
            0 -1 61 1.4573114458471537e-04</internalNodes>
          <leafValues>
            1.6871693730354309e-01 -9.7329753637313843e-01</leafValues></_>
        <_>
          <internalNodes>
            0 -1 19 1.2939579784870148e-02</internalNodes>
          <leafValues>
            -5.4332631826400757e-01 2.6640918850898743e-01</leafValues></_>
        <_>
          <internalNodes>
            0 -1 59 1.0073780140373856e-04</internalNodes>
          <leafValues>
            1.7005027830600739e-01 -8.5533076524734497e-01</leafValues></_></weakClassifiers></_>
    <!-- stage 6 -->
    <_>
      <maxWeakCount>6</maxWeakCount>
      <stageThreshold>-1.4870101213455200e+00</stageThreshold>
      <weakClassifiers>
        <_>
          <internalNodes>
            0 -1 79 -2.8541930019855499e-02</internalNodes>
          <leafValues>
            1.5151515603065491e-01 -8.0837208032608032e-01</leafValues></_>
        <_>
          <internalNodes>
            0 -1 75 -3.8022815715521574e-04</internalNodes>
          <leafValues>
            -7.2596502304077148e-01 6.6741399466991425e-02</leafValues></_>
        <_>
          <internalNodes>
            0 -1 24 -1.0098278522491455e-01</internalNodes>
          <leafValues>
            1.9077423214912415e-01 -7.0993113517761230e-01</leafValues></_>
        <_>
          <internalNodes>
            0 -1 8 -3.1025966163724661e-03</internalNodes>
          <leafValues>
            5.6405442953109741e-01 -3.6170005798339844e-01</leafValues></_>
        <_>
          <internalNodes>
            0 -1 14 5.6303187739104033e-04</internalNodes>
          <leafValues>
            -2.4060122668743134e-01 6.5392833948135376e-01</leafValues></_>
        <_>
          <internalNodes>
            0 -1 88 1.6880116163520142e-05</internalNodes>
          <leafValues>
            -3.3385238051414490e-01 4.6565857529640198e-01</leafValues></_></weakClassifiers></_>
    <!-- stage 7 -->
    <_>
      <maxWeakCount>9</maxWeakCount>
      <stageThreshold>-1.5051274299621582e+00</stageThreshold>
      <weakClassifiers>
        <_>
          <internalNodes>
            0 -1 72 -3.0684912204742432e-01</internalNodes>
          <leafValues>
            4.0540540218353271e-01 -7.9166668653488159e-01</leafValues></_>
        <_>
          <internalNodes>
            0 -1 21 6.2679410912096500e-03</internalNodes>
          <leafValues>
            -5.7405513525009155e-01 1.6332544386386871e-01</leafValues></_>
        <_>
          <internalNodes>
            0 -1 62 1.3159701484255493e-04</internalNodes>
          <leafValues>
            1.5327854454517365e-01 -8.0346858501434326e-01</leafValues></_>
        <_>
          <internalNodes>
            0 -1 11 -8.3955727517604828e-02</internalNodes>
          <leafValues>
            -6.9448292255401611e-01 2.2099353373050690e-01</leafValues></_>
        <_>
          <internalNodes>
            0 -1 81 -7.5245858170092106e-05</internalNodes>
          <leafValues>
            2.6945316791534424e-01 -5.0508898496627808e-01</leafValues></_>
        <_>
          <internalNodes>
            0 -1 32 7.6319463551044464e-04</internalNodes>
          <leafValues>
            2.2930122911930084e-01 -6.9375377893447876e-01</leafValues></_>
        <_>
          <internalNodes>
            0 -1 92 1.2548365630209446e-02</internalNodes>
          <leafValues>
            -3.3801934123039246e-01 4.4449433684349060e-01</leafValues></_>
        <_>
          <internalNodes>
            0 -1 86 -6.9016800262033939e-04</internalNodes>
          <leafValues>
            -7.0179110765457153e-01 2.2600990533828735e-01</leafValues></_>
        <_>
          <internalNodes>
            0 -1 41 -2.8717145323753357e-04</internalNodes>
          <leafValues>
            -5.7638889551162720e-01 2.3442026972770691e-01</leafValues></_></weakClassifiers></_>
    <!-- stage 8 -->
    <_>
      <maxWeakCount>9</maxWeakCount>
      <stageThreshold>-1.7416924238204956e+00</stageThreshold>
      <weakClassifiers>
        <_>
          <internalNodes>
            0 -1 109 7.5932247564196587e-03</internalNodes>
          <leafValues>
            -7.8738737106323242e-01 4.8387095332145691e-01</leafValues></_>
        <_>
          <internalNodes>
            0 -1 18 1.6393899568356574e-04</internalNodes>
          <leafValues>
            -4.5821288228034973e-01 2.9330617189407349e-01</leafValues></_>
        <_>
          <internalNodes>
            0 -1 5 2.8867796063423157e-03</internalNodes>
          <leafValues>
            -6.0795974731445313e-01 1.7136166989803314e-01</leafValues></_>
        <_>
          <internalNodes>
            0 -1 28 4.1551017784513533e-04</internalNodes>
          <leafValues>
            1.4630268514156342e-01 -7.6280325651168823e-01</leafValues></_>
        <_>
          <internalNodes>
            0 -1 2 -1.4085192233324051e-03</internalNodes>
          <leafValues>
            -8.9295786619186401e-01 1.6018329560756683e-01</leafValues></_>
        <_>
          <internalNodes>
            0 -1 110 8.4758922457695007e-04</internalNodes>
          <leafValues>
            -2.2851474583148956e-01 6.7592781782150269e-01</leafValues></_>
        <_>
          <internalNodes>
            0 -1 46 -1.0715076699852943e-02</internalNodes>
          <leafValues>
            4.5051175355911255e-01 -2.8875508904457092e-01</leafValues></_>
        <_>
          <internalNodes>
            0 -1 4 3.7537419702857733e-03</internalNodes>
          <leafValues>
            -3.5062509775161743e-01 3.3909752964973450e-01</leafValues></_>
        <_>
          <internalNodes>
            0 -1 30 -6.6997101530432701e-03</internalNodes>
          <leafValues>
            2.0782941579818726e-01 -6.6210919618606567e-01</leafValues></_></weakClassifiers></_>
    <!-- stage 9 -->
    <_>
      <maxWeakCount>9</maxWeakCount>
      <stageThreshold>-1.5624241828918457e+00</stageThreshold>
      <weakClassifiers>
        <_>
          <internalNodes>
            0 -1 25 -1.1549660935997963e-02</internalNodes>
          <leafValues>
            4.0000000596046448e-01 -7.8397840261459351e-01</leafValues></_>
        <_>
          <internalNodes>
            0 -1 43 1.9184004049748182e-03</internalNodes>
          <leafValues>
            -5.3031200170516968e-01 1.2385717034339905e-01</leafValues></_>
        <_>
          <internalNodes>
            0 -1 33 3.4985169768333435e-02</internalNodes>
          <leafValues>
            -2.3959589004516602e-01 5.4424083232879639e-01</leafValues></_>
        <_>
          <internalNodes>
            0 -1 99 -5.3029740229249001e-03</internalNodes>
          <leafValues>
            2.6171195507049561e-01 -4.9122563004493713e-01</leafValues></_>
        <_>
          <internalNodes>
            0 -1 64 1.2319830711930990e-03</internalNodes>
          <leafValues>
            1.3490362465381622e-01 -9.1134357452392578e-01</leafValues></_>
        <_>
          <internalNodes>
            0 -1 6 2.0981174893677235e-03</internalNodes>
          <leafValues>
            -6.7833060026168823e-01 1.5678784251213074e-01</leafValues></_>
        <_>
          <internalNodes>
            0 -1 15 2.1530359517782927e-03</internalNodes>
          <leafValues>
            -2.5537544488906860e-01 4.8159685730934143e-01</leafValues></_>
        <_>
          <internalNodes>
            0 -1 50 1.2236648763064295e-04</internalNodes>
          <leafValues>
            1.8976213037967682e-01 -6.4114636182785034e-01</leafValues></_>
        <_>
          <internalNodes>
            0 -1 101 -1.2947680079378188e-04</internalNodes>
          <leafValues>
            3.9866441488265991e-01 -3.1537869572639465e-01</leafValues></_></weakClassifiers></_>
    <!-- stage 10 -->
    <_>
      <maxWeakCount>9</maxWeakCount>
      <stageThreshold>-1.4049068689346313e+00</stageThreshold>
      <weakClassifiers>
        <_>
          <internalNodes>
            0 -1 52 -5.5191941559314728e-02</internalNodes>
          <leafValues>
            7.6470589637756348e-01 -7.7580070495605469e-01</leafValues></_>
        <_>
          <internalNodes>
            0 -1 97 -1.6423018678324297e-05</internalNodes>
          <leafValues>
            1.1801218613982201e-02 -6.3152289390563965e-01</leafValues></_>
        <_>
          <internalNodes>
            0 -1 34 -1.4366472896654159e-05</internalNodes>
          <leafValues>
            1.4286981523036957e-01 -6.7627149820327759e-01</leafValues></_>
        <_>
          <internalNodes>
            0 -1 91 -2.7705391403287649e-05</internalNodes>
          <leafValues>
            -6.3523888587951660e-01 2.2142232954502106e-01</leafValues></_>
        <_>
          <internalNodes>
            0 -1 9 5.5337324738502502e-02</internalNodes>
          <leafValues>
            1.4491240680217743e-01 -7.0462298393249512e-01</leafValues></_>
        <_>
          <internalNodes>
            0 -1 42 -4.9361522542312741e-04</internalNodes>
          <leafValues>
            -9.5684438943862915e-01 9.5978178083896637e-02</leafValues></_>
        <_>
          <internalNodes>
            0 -1 3 -3.2915376126766205e-02</internalNodes>
          <leafValues>
            4.4926801323890686e-01 -2.7999714016914368e-01</leafValues></_>
        <_>
          <internalNodes>
            0 -1 103 -3.8928823778405786e-04</internalNodes>
          <leafValues>
            2.7952080965042114e-01 -4.5987260341644287e-01</leafValues></_>
        <_>
          <internalNodes>
            0 -1 95 7.4246879667043686e-03</internalNodes>
          <leafValues>
            -3.6082586646080017e-01 3.1292095780372620e-01</leafValues></_></weakClassifiers></_>
    <!-- stage 11 -->
    <_>
      <maxWeakCount>12</maxWeakCount>
      <stageThreshold>-1.8248368501663208e+00</stageThreshold>
      <weakClassifiers>
        <_>
          <internalNodes>
            0 -1 108 -7.1274320362135768e-04</internalNodes>
          <leafValues>
            -1.4285714924335480e-01 -8.1467181444168091e-01</leafValues></_>
        <_>
          <internalNodes>
            0 -1 27 3.2235606340691447e-04</internalNodes>
          <leafValues>
            -4.1411736607551575e-01 3.8172402977943420e-01</leafValues></_>
        <_>
          <internalNodes>
            0 -1 44 3.0166000127792358e-02</internalNodes>
          <leafValues>
            1.3874223828315735e-01 -7.4792206287384033e-01</leafValues></_>
        <_>
          <internalNodes>
            0 -1 114 2.1063190069980919e-04</internalNodes>
          <leafValues>
            -2.3035432398319244e-01 5.2656316757202148e-01</leafValues></_>
        <_>
          <internalNodes>
            0 -1 37 -1.3024215586483479e-03</internalNodes>
          <leafValues>
            4.1355296969413757e-01 -2.9410618543624878e-01</leafValues></_>
        <_>
          <internalNodes>
            0 -1 12 -1.2352215708233416e-04</internalNodes>
          <leafValues>
            3.8105583190917969e-01 -2.9148545861244202e-01</leafValues></_>
        <_>
          <internalNodes>
            0 -1 105 -5.2972673438489437e-04</internalNodes>
          <leafValues>
            -8.5190021991729736e-01 1.5237137675285339e-01</leafValues></_>
        <_>
          <internalNodes>
            0 -1 0 6.1374413780868053e-04</internalNodes>
          <leafValues>
            1.3100588321685791e-01 -6.9671058654785156e-01</leafValues></_>
        <_>
          <internalNodes>
            0 -1 58 2.0443346351385117e-02</internalNodes>
          <leafValues>
            -2.2705838084220886e-01 5.0179779529571533e-01</leafValues></_>
        <_>
          <internalNodes>
            0 -1 47 -3.2943507540039718e-04</internalNodes>
          <leafValues>
            -4.2869493365287781e-01 2.5616985559463501e-01</leafValues></_>
        <_>
          <internalNodes>
            0 -1 71 -1.5969374775886536e-01</internalNodes>
          <leafValues>
            3.6690172553062439e-01 -4.0509346127510071e-01</leafValues></_>
        <_>
          <internalNodes>
            0 -1 31 4.9069654778577387e-05</internalNodes>
          <leafValues>
            -5.1792913675308228e-01 2.4455985426902771e-01</leafValues></_></weakClassifiers></_>
    <!-- stage 12 -->
    <_>
      <maxWeakCount>10</maxWeakCount>
      <stageThreshold>-2.0297591686248779e+00</stageThreshold>
      <weakClassifiers>
        <_>
          <internalNodes>
            0 -1 112 -1.2445889413356781e-02</internalNodes>
          <leafValues>
            6.5217393636703491e-01 -7.8175312280654907e-01</leafValues></_>
        <_>
          <internalNodes>
            0 -1 106 7.0523526519536972e-03</internalNodes>
          <leafValues>
            -4.4567155838012695e-01 2.5011855363845825e-01</leafValues></_>
        <_>
          <internalNodes>
            0 -1 107 -1.4459685189649463e-03</internalNodes>
          <leafValues>
            3.8658633828163147e-01 -3.0915939807891846e-01</leafValues></_>
        <_>
          <internalNodes>
            0 -1 90 2.9665383044630289e-04</internalNodes>
          <leafValues>
            1.0976512730121613e-01 -1.</leafValues></_>
        <_>
          <internalNodes>
            0 -1 102 1.5752434264868498e-03</internalNodes>
          <leafValues>
            -2.6981672644615173e-01 3.7921991944313049e-01</leafValues></_>
        <_>
          <internalNodes>
            0 -1 53 5.7857258070725948e-05</internalNodes>
          <leafValues>
            1.2181864678859711e-01 -8.1469416618347168e-01</leafValues></_>
        <_>
          <internalNodes>
            0 -1 69 6.1874859966337681e-05</internalNodes>
          <leafValues>
            -3.0723646283149719e-01 3.8619041442871094e-01</leafValues></_>
        <_>
          <internalNodes>
            0 -1 7 7.9114176332950592e-03</internalNodes>
          <leafValues>
            -2.2176155447959900e-01 4.7907704114913940e-01</leafValues></_>
        <_>
          <internalNodes>
            0 -1 26 3.4215003252029419e-03</internalNodes>
          <leafValues>
            -2.1922680735588074e-01 6.2546998262405396e-01</leafValues></_>
        <_>
          <internalNodes>
            0 -1 93 1.7134174413513392e-05</internalNodes>
          <leafValues>
            -4.0246295928955078e-01 2.7431100606918335e-01</leafValues></_></weakClassifiers></_>
    <!-- stage 13 -->
    <_>
      <maxWeakCount>11</maxWeakCount>
      <stageThreshold>-1.6067926883697510e+00</stageThreshold>
      <weakClassifiers>
        <_>
          <internalNodes>
            0 -1 17 1.4199202414602041e-03</internalNodes>
          <leafValues>
            -7.8804349899291992e-01 2.9729729890823364e-01</leafValues></_>
        <_>
          <internalNodes>
            0 -1 98 -2.1782841533422470e-02</internalNodes>
          <leafValues>
            4.6478524804115295e-01 -3.8666832447052002e-01</leafValues></_>
        <_>
          <internalNodes>
            0 -1 35 -4.0311606426257640e-05</internalNodes>
          <leafValues>
            2.3518823087215424e-01 -4.4606286287307739e-01</leafValues></_>
        <_>
          <internalNodes>
            0 -1 76 6.0196715639904141e-04</internalNodes>
          <leafValues>
            9.5215208828449249e-02 -1.</leafValues></_>
        <_>
          <internalNodes>
            0 -1 111 -2.2852004622109234e-04</internalNodes>
          <leafValues>
            4.2163079977035522e-01 -2.6557669043540955e-01</leafValues></_>
        <_>
          <internalNodes>
            0 -1 39 1.3702230062335730e-03</internalNodes>
          <leafValues>
            -2.1703986823558807e-01 4.9210959672927856e-01</leafValues></_>
        <_>
          <internalNodes>
            0 -1 84 -5.2343049901537597e-05</internalNodes>
          <leafValues>
            -8.0850052833557129e-01 1.2177596986293793e-01</leafValues></_>
        <_>
          <internalNodes>
            0 -1 77 -1.2898743152618408e-03</internalNodes>
          <leafValues>
            6.2680518627166748e-01 -1.5873849391937256e-01</leafValues></_>
        <_>
          <internalNodes>
            0 -1 66 5.1785304094664752e-05</internalNodes>
          <leafValues>
            -3.0899736285209656e-01 3.5178110003471375e-01</leafValues></_>
        <_>
          <internalNodes>
            0 -1 70 -8.7449170678155497e-06</internalNodes>
          <leafValues>
            2.1963214874267578e-01 -4.9985128641128540e-01</leafValues></_>
        <_>
          <internalNodes>
            0 -1 16 5.5452168453484774e-04</internalNodes>
          <leafValues>
            -2.1960033476352692e-01 4.9998593330383301e-01</leafValues></_></weakClassifiers></_>
    <!-- stage 14 -->
    <_>
      <maxWeakCount>10</maxWeakCount>
      <stageThreshold>-1.4351590871810913e+00</stageThreshold>
      <weakClassifiers>
        <_>
          <internalNodes>
            0 -1 1 2.6193547993898392e-02</internalNodes>
          <leafValues>
            -7.8985506296157837e-01 3.5135135054588318e-01</leafValues></_>
        <_>
          <internalNodes>
            0 -1 13 -4.8718883772380650e-04</internalNodes>
          <leafValues>
            2.4363060295581818e-01 -4.6715566515922546e-01</leafValues></_>
        <_>
          <internalNodes>
            0 -1 60 -2.3689218796789646e-03</internalNodes>
          <leafValues>
            2.3292878270149231e-01 -4.0877926349639893e-01</leafValues></_>
        <_>
          <internalNodes>
            0 -1 63 -7.0186313241720200e-03</internalNodes>
          <leafValues>
            -7.7680039405822754e-01 1.3500957190990448e-01</leafValues></_>
        <_>
          <internalNodes>
            0 -1 45 -4.5170215889811516e-04</internalNodes>
          <leafValues>
            -3.3219662308692932e-01 3.3580043911933899e-01</leafValues></_>
        <_>
          <internalNodes>
            0 -1 78 1.0230641055386513e-04</internalNodes>
          <leafValues>
            8.7761655449867249e-02 -8.9297878742218018e-01</leafValues></_>
        <_>
          <internalNodes>
            0 -1 94 1.5334393829107285e-03</internalNodes>
          <leafValues>
            -4.3506509065628052e-01 2.4414242804050446e-01</leafValues></_>
        <_>
          <internalNodes>
            0 -1 104 7.7244825661182404e-03</internalNodes>
          <leafValues>
            -1.9358368217945099e-01 5.6044358015060425e-01</leafValues></_>
        <_>
          <internalNodes>
            0 -1 36 -2.0495172066148371e-04</internalNodes>
          <leafValues>
            -5.7655352354049683e-01 2.2457097470760345e-01</leafValues></_>
        <_>
          <internalNodes>
            0 -1 29 4.9754967913031578e-03</internalNodes>
          <leafValues>
            -3.5231110453605652e-01 3.4623903036117554e-01</leafValues></_></weakClassifiers></_></stages>
  <features>
    <_>
      <rects>
        <_>
          0 0 9 1 -1.</_>
        <_>
          3 0 3 1 3.</_></rects>
      <tilted>0</tilted></_>
    <_>
      <rects>
        <_>
          0 0 6 14 -1.</_>
        <_>
          0 0 3 7 2.</_>
        <_>
          3 7 3 7 2.</_></rects>
      <tilted>0</tilted></_>
    <_>
      <rects>
        <_>
          0 0 12 2 -1.</_>
        <_>
          4 0 4 2 3.</_></rects>
      <tilted>0</tilted></_>
    <_>
      <rects>
        <_>
          0 0 14 20 -1.</_>
        <_>
          0 0 7 10 2.</_>
        <_>
          7 10 7 10 2.</_></rects>
      <tilted>0</tilted></_>
    <_>
      <rects>
        <_>
          0 0 18 8 -1.</_>
        <_>
          0 0 9 4 2.</_>
        <_>
          9 4 9 4 2.</_></rects>
      <tilted>0</tilted></_>
    <_>
      <rects>
        <_>
          0 0 20 6 -1.</_>
        <_>
          10 0 10 6 2.</_></rects>
      <tilted>0</tilted></_>
    <_>
      <rects>
        <_>
          0 0 20 9 -1.</_>
        <_>
          10 0 10 9 2.</_></rects>
      <tilted>0</tilted></_>
    <_>
      <rects>
        <_>
          0 1 9 28 -1.</_>
        <_>
          3 1 3 28 3.</_></rects>
      <tilted>0</tilted></_>
    <_>
      <rects>
        <_>
          0 2 6 18 -1.</_>
        <_>
          2 2 2 18 3.</_></rects>
      <tilted>0</tilted></_>
    <_>
      <rects>
        <_>
          0 2 7 30 -1.</_>
        <_>
          0 12 7 10 3.</_></rects>
      <tilted>0</tilted></_>
    <_>
      <rects>
        <_>
          0 3 31 12 -1.</_>
        <_>
          0 7 31 4 3.</_></rects>
      <tilted>0</tilted></_>
    <_>
      <rects>
        <_>
          0 5 7 26 -1.</_>
        <_>
          0 18 7 13 2.</_></rects>
      <tilted>0</tilted></_>
    <_>
      <rects>
        <_>
          0 11 2 5 -1.</_>
        <_>
          1 11 1 5 2.</_></rects>
      <tilted>0</tilted></_>
    <_>
      <rects>
        <_>
          0 14 8 2 -1.</_>
        <_>
          4 14 4 2 2.</_></rects>
      <tilted>0</tilted></_>
    <_>
      <rects>
        <_>
          0 20 6 1 -1.</_>
        <_>
          2 20 2 1 3.</_></rects>
      <tilted>0</tilted></_>
    <_>
      <rects>
        <_>
          0 20 6 7 -1.</_>
        <_>
          2 20 2 7 3.</_></rects>
      <tilted>0</tilted></_>
    <_>
      <rects>
        <_>
          0 21 3 2 -1.</_>
        <_>
          1 21 1 2 3.</_></rects>
      <tilted>0</tilted></_>
    <_>
      <rects>
        <_>
          0 22 1 3 -1.</_>
        <_>
          0 23 1 1 3.</_></rects>
      <tilted>0</tilted></_>
    <_>
      <rects>
        <_>
          0 27 2 4 -1.</_>
        <_>
          0 27 1 2 2.</_>
        <_>
          1 29 1 2 2.</_></rects>
      <tilted>0</tilted></_>
    <_>
      <rects>
        <_>
          1 0 8 21 -1.</_>
        <_>
          5 0 4 21 2.</_></rects>
      <tilted>0</tilted></_>
    <_>
      <rects>
        <_>
          1 0 10 16 -1.</_>
        <_>
          6 0 5 16 2.</_></rects>
      <tilted>0</tilted></_>
    <_>
      <rects>
        <_>
          1 0 15 4 -1.</_>
        <_>
          1 2 15 2 2.</_></rects>
      <tilted>0</tilted></_>
    <_>
      <rects>
        <_>
          1 1 2 2 -1.</_>
        <_>
          2 1 1 2 2.</_></rects>
      <tilted>0</tilted></_>
    <_>
      <rects>
        <_>
          1 1 4 26 -1.</_>
        <_>
          1 1 2 13 2.</_>
        <_>
          3 14 2 13 2.</_></rects>
      <tilted>0</tilted></_>
    <_>
      <rects>
        <_>
          1 1 17 28 -1.</_>
        <_>
          1 15 17 14 2.</_></rects>
      <tilted>0</tilted></_>
    <_>
      <rects>
        <_>
          1 3 24 2 -1.</_>
        <_>
          1 3 12 1 2.</_>
        <_>
          13 4 12 1 2.</_></rects>
      <tilted>0</tilted></_>
    <_>
      <rects>
        <_>
          1 4 26 2 -1.</_>
        <_>
          1 4 13 1 2.</_>
        <_>
          14 5 13 1 2.</_></rects>
      <tilted>0</tilted></_>
    <_>
      <rects>
        <_>
          1 31 3 1 -1.</_>
        <_>
          2 31 1 1 3.</_></rects>
      <tilted>0</tilted></_>
    <_>
      <rects>
        <_>
          2 0 9 1 -1.</_>
        <_>
          5 0 3 1 3.</_></rects>
      <tilted>0</tilted></_>
    <_>
      <rects>
        <_>
          3 16 27 1 -1.</_>
        <_>
          12 16 9 1 3.</_></rects>
      <tilted>0</tilted></_>
    <_>
      <rects>
        <_>
          5 2 1 30 -1.</_>
        <_>
          5 17 1 15 2.</_></rects>
      <tilted>0</tilted></_>
    <_>
      <rects>
        <_>
          6 2 2 27 -1.</_>
        <_>
          7 2 1 27 2.</_></rects>
      <tilted>0</tilted></_>
    <_>
      <rects>
        <_>
          6 7 7 8 -1.</_>
        <_>
          6 11 7 4 2.</_></rects>
      <tilted>0</tilted></_>
    <_>
      <rects>
        <_>
          6 9 26 9 -1.</_>
        <_>
          6 12 26 3 3.</_></rects>
      <tilted>0</tilted></_>
    <_>
      <rects>
        <_>
          6 10 23 6 -1.</_>
        <_>
          6 13 23 3 2.</_></rects>
      <tilted>0</tilted></_>
    <_>
      <rects>
        <_>
          6 20 2 6 -1.</_>
        <_>
          6 23 2 3 2.</_></rects>
      <tilted>0</tilted></_>
    <_>
      <rects>
        <_>
          6 25 1 6 -1.</_>
        <_>
          6 27 1 2 3.</_></rects>
      <tilted>0</tilted></_>
    <_>
      <rects>
        <_>
          6 26 14 6 -1.</_>
        <_>
          6 26 7 3 2.</_>
        <_>
          13 29 7 3 2.</_></rects>
      <tilted>0</tilted></_>
    <_>
      <rects>
        <_>
          7 1 14 28 -1.</_>
        <_>
          7 15 14 14 2.</_></rects>
      <tilted>0</tilted></_>
    <_>
      <rects>
        <_>
          7 2 20 2 -1.</_>
        <_>
          7 2 10 1 2.</_>
        <_>
          17 3 10 1 2.</_></rects>
      <tilted>0</tilted></_>
    <_>
      <rects>
        <_>
          7 3 25 6 -1.</_>
        <_>
          7 6 25 3 2.</_></rects>
      <tilted>0</tilted></_>
    <_>
      <rects>
        <_>
          7 8 2 6 -1.</_>
        <_>
          7 11 2 3 2.</_></rects>
      <tilted>0</tilted></_>
    <_>
      <rects>
        <_>
          7 11 5 6 -1.</_>
        <_>
          7 13 5 2 3.</_></rects>
      <tilted>0</tilted></_>
    <_>
      <rects>
        <_>
          8 0 4 6 -1.</_>
        <_>
          8 2 4 2 3.</_></rects>
      <tilted>0</tilted></_>
    <_>
      <rects>
        <_>
          8 0 12 28 -1.</_>
        <_>
          14 0 6 28 2.</_></rects>
      <tilted>0</tilted></_>
    <_>
      <rects>
        <_>
          8 7 13 6 -1.</_>
        <_>
          8 10 13 3 2.</_></rects>
      <tilted>0</tilted></_>
    <_>
      <rects>
        <_>
          8 8 24 23 -1.</_>
        <_>
          16 8 8 23 3.</_></rects>
      <tilted>0</tilted></_>
    <_>
      <rects>
        <_>
          8 8 12 4 -1.</_>
        <_>
          8 10 12 2 2.</_></rects>
      <tilted>0</tilted></_>
    <_>
      <rects>
        <_>
          8 15 22 2 -1.</_>
        <_>
          8 15 11 1 2.</_>
        <_>
          19 16 11 1 2.</_></rects>
      <tilted>0</tilted></_>
    <_>
      <rects>
        <_>
          9 1 18 15 -1.</_>
        <_>
          15 1 6 15 3.</_></rects>
      <tilted>0</tilted></_>
    <_>
      <rects>
        <_>
          9 13 4 3 -1.</_>
        <_>
          9 14 4 1 3.</_></rects>
      <tilted>0</tilted></_>
    <_>
      <rects>
        <_>
          10 0 17 4 -1.</_>
        <_>
          10 2 17 2 2.</_></rects>
      <tilted>0</tilted></_>
    <_>
      <rects>
        <_>
          10 4 22 6 -1.</_>
        <_>
          10 4 11 3 2.</_>
        <_>
          21 7 11 3 2.</_></rects>
      <tilted>0</tilted></_>
    <_>
      <rects>
        <_>
          10 12 1 3 -1.</_>
        <_>
          10 13 1 1 3.</_></rects>
      <tilted>0</tilted></_>
    <_>
      <rects>
        <_>
          10 12 3 2 -1.</_>
        <_>
          10 13 3 1 2.</_></rects>
      <tilted>0</tilted></_>
    <_>
      <rects>
        <_>
          10 13 6 1 -1.</_>
        <_>
          13 13 3 1 2.</_></rects>
      <tilted>0</tilted></_>
    <_>
      <rects>
        <_>
          10 13 6 3 -1.</_>
        <_>
          10 14 6 1 3.</_></rects>
      <tilted>0</tilted></_>
    <_>
      <rects>
        <_>
          10 16 16 4 -1.</_>
        <_>
          10 16 8 2 2.</_>
        <_>
          18 18 8 2 2.</_></rects>
      <tilted>0</tilted></_>
    <_>
      <rects>
        <_>
          10 16 15 9 -1.</_>
        <_>
          10 19 15 3 3.</_></rects>
      <tilted>0</tilted></_>
    <_>
      <rects>
        <_>
          11 0 3 1 -1.</_>
        <_>
          12 0 1 1 3.</_></rects>
      <tilted>0</tilted></_>
    <_>
      <rects>
        <_>
          11 9 21 23 -1.</_>
        <_>
          18 9 7 23 3.</_></rects>
      <tilted>0</tilted></_>
    <_>
      <rects>
        <_>
          11 11 2 4 -1.</_>
        <_>
          11 13 2 2 2.</_></rects>
      <tilted>0</tilted></_>
    <_>
      <rects>
        <_>
          11 13 10 2 -1.</_>
        <_>
          11 13 5 1 2.</_>
        <_>
          16 14 5 1 2.</_></rects>
      <tilted>0</tilted></_>
    <_>
      <rects>
        <_>
          11 22 8 5 -1.</_>
        <_>
          15 22 4 5 2.</_></rects>
      <tilted>0</tilted></_>
    <_>
      <rects>
        <_>
          12 0 12 1 -1.</_>
        <_>
          16 0 4 1 3.</_></rects>
      <tilted>0</tilted></_>
    <_>
      <rects>
        <_>
          12 1 3 12 -1.</_>
        <_>
          12 7 3 6 2.</_></rects>
      <tilted>0</tilted></_>
    <_>
      <rects>
        <_>
          12 11 8 2 -1.</_>
        <_>
          16 11 4 2 2.</_></rects>
      <tilted>0</tilted></_>
    <_>
      <rects>
        <_>
          12 11 10 1 -1.</_>
        <_>
          17 11 5 1 2.</_></rects>
      <tilted>0</tilted></_>
    <_>
      <rects>
        <_>
          12 13 3 3 -1.</_>
        <_>
          12 14 3 1 3.</_></rects>
      <tilted>0</tilted></_>
    <_>
      <rects>
        <_>
          12 14 6 3 -1.</_>
        <_>
          15 14 3 3 2.</_></rects>
      <tilted>0</tilted></_>
    <_>
      <rects>
        <_>
          13 0 18 8 -1.</_>
        <_>
          22 0 9 8 2.</_></rects>
      <tilted>0</tilted></_>
    <_>
      <rects>
        <_>
          13 1 12 24 -1.</_>
        <_>
          13 13 12 12 2.</_></rects>
      <tilted>0</tilted></_>
    <_>
      <rects>
        <_>
          13 4 10 28 -1.</_>
        <_>
          13 18 10 14 2.</_></rects>
      <tilted>0</tilted></_>
    <_>
      <rects>
        <_>
          13 9 6 4 -1.</_>
        <_>
          16 9 3 4 2.</_></rects>
      <tilted>0</tilted></_>
    <_>
      <rects>
        <_>
          13 12 6 2 -1.</_>
        <_>
          16 12 3 2 2.</_></rects>
      <tilted>0</tilted></_>
    <_>
      <rects>
        <_>
          13 12 6 4 -1.</_>
        <_>
          13 14 6 2 2.</_></rects>
      <tilted>0</tilted></_>
    <_>
      <rects>
        <_>
          14 7 2 8 -1.</_>
        <_>
          14 11 2 4 2.</_></rects>
      <tilted>0</tilted></_>
    <_>
      <rects>
        <_>
          14 13 2 12 -1.</_>
        <_>
          15 13 1 12 2.</_></rects>
      <tilted>0</tilted></_>
    <_>
      <rects>
        <_>
          14 13 4 1 -1.</_>
        <_>
          16 13 2 1 2.</_></rects>
      <tilted>0</tilted></_>
    <_>
      <rects>
        <_>
          14 15 12 6 -1.</_>
        <_>
          14 17 12 2 3.</_></rects>
      <tilted>0</tilted></_>
    <_>
      <rects>
        <_>
          14 17 8 4 -1.</_>
        <_>
          14 17 4 2 2.</_>
        <_>
          18 19 4 2 2.</_></rects>
      <tilted>0</tilted></_>
    <_>
      <rects>
        <_>
          14 28 8 2 -1.</_>
        <_>
          14 29 8 1 2.</_></rects>
      <tilted>0</tilted></_>
    <_>
      <rects>
        <_>
          15 2 4 26 -1.</_>
        <_>
          15 15 4 13 2.</_></rects>
      <tilted>0</tilted></_>
    <_>
      <rects>
        <_>
          15 14 6 6 -1.</_>
        <_>
          15 17 6 3 2.</_></rects>
      <tilted>0</tilted></_>
    <_>
      <rects>
        <_>
          16 0 2 1 -1.</_>
        <_>
          17 0 1 1 2.</_></rects>
      <tilted>0</tilted></_>
    <_>
      <rects>
        <_>
          16 0 1 8 -1.</_>
        <_>
          16 4 1 4 2.</_></rects>
      <tilted>0</tilted></_>
    <_>
      <rects>
        <_>
          16 8 9 9 -1.</_>
        <_>
          19 8 3 9 3.</_></rects>
      <tilted>0</tilted></_>
    <_>
      <rects>
        <_>
          16 12 4 8 -1.</_>
        <_>
          16 16 4 4 2.</_></rects>
      <tilted>0</tilted></_>
    <_>
      <rects>
        <_>
          16 14 2 6 -1.</_>
        <_>
          17 14 1 6 2.</_></rects>
      <tilted>0</tilted></_>
    <_>
      <rects>
        <_>
          16 19 2 6 -1.</_>
        <_>
          16 21 2 2 3.</_></rects>
      <tilted>0</tilted></_>
    <_>
      <rects>
        <_>
          17 12 4 3 -1.</_>
        <_>
          19 12 2 3 2.</_></rects>
      <tilted>0</tilted></_>
    <_>
      <rects>
        <_>
          17 13 1 2 -1.</_>
        <_>
          17 14 1 1 2.</_></rects>
      <tilted>0</tilted></_>
    <_>
      <rects>
        <_>
          17 17 12 9 -1.</_>
        <_>
          17 20 12 3 3.</_></rects>
      <tilted>0</tilted></_>
    <_>
      <rects>
        <_>
          17 19 7 3 -1.</_>
        <_>
          17 20 7 1 3.</_></rects>
      <tilted>0</tilted></_>
    <_>
      <rects>
        <_>
          18 0 2 9 -1.</_>
        <_>
          18 3 2 3 3.</_></rects>
      <tilted>0</tilted></_>
    <_>
      <rects>
        <_>
          18 0 7 9 -1.</_>
        <_>
          18 3 7 3 3.</_></rects>
      <tilted>0</tilted></_>
    <_>
      <rects>
        <_>
          18 1 2 6 -1.</_>
        <_>
          18 3 2 2 3.</_></rects>
      <tilted>0</tilted></_>
    <_>
      <rects>
        <_>
          18 26 7 2 -1.</_>
        <_>
          18 27 7 1 2.</_></rects>
      <tilted>0</tilted></_>
    <_>
      <rects>
        <_>
          19 0 4 12 -1.</_>
        <_>
          19 4 4 4 3.</_></rects>
      <tilted>0</tilted></_>
    <_>
      <rects>
        <_>
          20 1 12 11 -1.</_>
        <_>
          26 1 6 11 2.</_></rects>
      <tilted>0</tilted></_>
    <_>
      <rects>
        <_>
          21 2 10 22 -1.</_>
        <_>
          21 13 10 11 2.</_></rects>
      <tilted>0</tilted></_>
    <_>
      <rects>
        <_>
          21 18 2 8 -1.</_>
        <_>
          21 18 1 4 2.</_>
        <_>
          22 22 1 4 2.</_></rects>
      <tilted>0</tilted></_>
    <_>
      <rects>
        <_>
          21 27 10 4 -1.</_>
        <_>
          21 27 5 2 2.</_>
        <_>
          26 29 5 2 2.</_></rects>
      <tilted>0</tilted></_>
    <_>
      <rects>
        <_>
          22 8 4 20 -1.</_>
        <_>
          24 8 2 20 2.</_></rects>
      <tilted>0</tilted></_>
    <_>
      <rects>
        <_>
          24 15 3 9 -1.</_>
        <_>
          24 18 3 3 3.</_></rects>
      <tilted>0</tilted></_>
    <_>
      <rects>
        <_>
          25 11 4 2 -1.</_>
        <_>
          25 12 4 1 2.</_></rects>
      <tilted>0</tilted></_>
    <_>
      <rects>
        <_>
          25 15 6 12 -1.</_>
        <_>
          28 15 3 12 2.</_></rects>
      <tilted>0</tilted></_>
    <_>
      <rects>
        <_>
          26 15 6 10 -1.</_>
        <_>
          28 15 2 10 3.</_></rects>
      <tilted>0</tilted></_>
    <_>
      <rects>
        <_>
          27 30 4 2 -1.</_>
        <_>
          27 30 2 1 2.</_>
        <_>
          29 31 2 1 2.</_></rects>
      <tilted>0</tilted></_>
    <_>
      <rects>
        <_>
          28 11 4 6 -1.</_>
        <_>
          28 11 2 3 2.</_>
        <_>
          30 14 2 3 2.</_></rects>
      <tilted>0</tilted></_>
    <_>
      <rects>
        <_>
          29 14 2 8 -1.</_>
        <_>
          29 14 1 4 2.</_>
        <_>
          30 18 1 4 2.</_></rects>
      <tilted>0</tilted></_>
    <_>
      <rects>
        <_>
          29 30 3 2 -1.</_>
        <_>
          29 31 3 1 2.</_></rects>
      <tilted>0</tilted></_>
    <_>
      <rects>
        <_>
          30 3 1 12 -1.</_>
        <_>
          30 7 1 4 3.</_></rects>
      <tilted>0</tilted></_>
    <_>
      <rects>
        <_>
          30 27 2 3 -1.</_>
        <_>
          31 27 1 3 2.</_></rects>
      <tilted>0</tilted></_>
    <_>
      <rects>
        <_>
          30 28 2 4 -1.</_>
        <_>
          30 28 1 2 2.</_>
        <_>
          31 30 1 2 2.</_></rects>
      <tilted>0</tilted></_></features></cascade>
</opencv_storage>
